layers
4
Hidden Weights
0.9581194967222626 0.09976110409462373 0.8201812353678439 -0.430880641798721 0.4114329542422509 1.0978257287530209 -0.3489691770268168 -0.3378376415420934 1.047500966927791 ,0.010459833338801634 0.14624744605502782 -0.7273049795139847 1.1087869271624036 0.4283628132714934 0.38828405029897545 -0.9723772895769525 -1.1040614038175867 1.336324022191977 ,-0.2561228680810666 -1.7675237666569008 -3.3474187480894013 -0.23179944574377345 -0.6913126268621202 -2.42386129680121 -1.22026405189911 -1.8631727931874664 -1.2597892544359053 ,-0.19934869222049006 0.2908505578753224 -0.6478300181986 0.28745971127582626 -1.1008555465052203 -0.24756760533995287 1.001428819287928 0.007740855213991472 -0.2858545469293885 ,-1.4216167305516263 0.5454093315840547 0.3004859727307052 0.5061595823232647 2.4301662614803394 0.3886776912821186 0.38988358429894215 -0.8602617808482741 -0.11200764946936266 ,0.4620782639430003 0.5197200936476362 1.1721998879918458 0.3686634348255494 -0.5182419573388951 0.052102774284962385 -0.7541313788998908 0.26431347488773116 0.7697187611690215 ,-0.5651620578947595 0.5137708123881871 -0.7377730081362728 0.04680619710351132 -0.9265037330067224 -0.594553751388378 -0.5588059563860717 0.26971070959937093 -0.3171724612413301 ,-1.0428335406614722 -0.1989834293268939 2.599080304250008 0.48840593479355376 1.8649992655575063 -0.07717829915751423 -0.3136628301245509 0.5338069119479796 0.40220468816663296 ,;1.295070558260058 -0.996730132762897 -0.5150995740979505 1.334508303880198 0.668839853658296 0.7284784983699595 1.1695977974220921 -1.1432599277041136 0.2650736939494282 ,0.21832846255143906 0.6953046578506128 -0.3114139314117308 -0.39370148327178456 0.2347907785149753 -0.42699391815897236 1.2401063651095532 -0.520487497133015 -0.23944507148306948 ,-1.474343870886179 1.0397436620285576 1.8836780286457184 1.3111157910453306 1.5433873889865852 0.5772090550154606 1.1910604158806357 -0.283272751875479 -1.5173279288177919 ,0.621820319654423 -0.9897779598566934 0.20977180787537814 -0.6190749817471649 -0.5946637880749077 -0.6973289836449592 -0.1049909813073123 -0.33201720712609367 0.47030245391755277 ,1.5116295819556014 1.1721579879115902 -0.13210919858316705 -0.6412869779143416 -1.8872206247915946 0.18567848884484697 -2.4018783283829954 -0.7467930685704496 -1.7786504628031679 ,0.9683498194258452 -0.9075149115767912 0.2992891785196557 -0.8367359172316186 -0.7382621056724167 -0.705687402361764 -1.933279430356995 -1.808472017086208 0.8068445339594168 ,-0.7952435503849374 -0.058907377909618516 -0.2130893188642779 0.711007313905227 -1.326174913296944 -0.4744988020096527 -1.79629716635253 -0.26425756187025606 0.9874620100245424 ,2.2889665437261284 -2.3080379273102634 -2.4481746104989583 -0.9881578115918643 -1.4628835877283886 1.0511760065863538 0.9326098395855522 -0.5827602396618017 1.0270345819876359 ,;
Out Weights
0.7073916834761895 0.4739567312676541 -3.4215860598793206 1.8573393513950989 -3.0110348883761007 -0.9642048845653917 1.3457491216383244 -4.7569072700273605 0.21061935636954787 
Training Error
7.406136486576146 5.0110029788600485 4.802108179937248 4.418395437380486 3.899145112195505 3.2864012573970043 2.5280293607366544 1.6563351509160014 0.9029060970175684 0.45292535529400063 0.21167197378600186 0.1343958485795564 0.1027825715273632 0.07274147547730624 0.06144235073390584 0.04630892954190957 0.03639707841216032 0.02807147698753835 0.023696425685188625 0.019615742735400208 0.01623971693043246 0.012643145399393804 0.012876350450528203 0.012415123222109766 0.014755191153402675 0.012518857568093768 0.011696249157750103 0.011065017365073242 0.009728290430816442 0.01155208475180441 0.00878092654078573 0.008604642364984795 0.009160342762044325 0.009686857006358658 0.009026814456134269 0.008587429629318284 0.008263312074800525 0.008056731846214521 0.00787420676430873 0.0072784330519947 0.007878559531026333 0.007115294926865687 0.006628946327450326 0.006880412147865315 0.00673596526308811 0.007029326458296867 0.006332738872493957 0.007967093316415869 0.0079071077258694 0.006052500339953295 0.00764248212407616 0.007635445781960207 0.006351954285185256 0.006351954285185256
Validation Error
0.7923240424324219 0.13873327766227586 0.15541139825332248 0.15953384889642308 0.18532221039529917 0.18317580270106015 0.1357043529136303 0.1239907286146201 0.07575668849845572 0.04025427720896249 0.018263135880979633 0.00547976717501325 0.002814921364833258 0.003129720917934794 0.0022814205033454046 0.0019177767542774761 0.0025509634702957228 0.0017593832756952015 0.0014646817702428806 0.001095386769935308 9.078801421933471E-4 7.492582830457561E-4 5.234410233155085E-4 3.9443854658966724E-4 3.9443854658966724E-4 3.9443854658966724E-4 3.9443854658966724E-4 3.1713645422967143E-4 3.787823593540113E-4 3.7194043945944737E-4 4.3094107833452784E-4 3.7817382011948213E-4 3.7817382011948213E-4 3.7817382011948213E-4 3.7817382011948213E-4 3.7817382011948213E-4 3.7817382011948213E-4 3.68099520793092E-4 3.2764165287176396E-4 3.2764165287176396E-4 3.4969693707173833E-4 2.922843547229833E-4 2.922843547229833E-4 2.871819192374055E-4 2.871819192374055E-4 2.871819192374055E-4 2.871819192374055E-4 2.871819192374055E-4 2.871819192374055E-4 2.871819192374055E-4 2.871819192374055E-4 2.871819192374055E-4 2.871819192374055E-4 